{
  "layers": [
    [
      {
        "weights": [
          0.9280257244489712,
          -0.9107980810024966,
          -0.5378304654522572,
          0.5510789962480197,
          0.042195085679136615,
          -0.9502592118698407,
          -0.6576780867585799,
          -1.0433087921665307
        ],
        "bias": 0.6301502004481662
      },
      {
        "weights": [
          -0.018615604661311833,
          0.22814083450591893,
          -0.16777764285486074,
          -0.8566871378577213,
          0.9280339018262249,
          -0.557870266936261,
          -0.04733079215228301,
          0.7467893031655011
        ],
        "bias": 0.3640834680575401
      },
      {
        "weights": [
          1.2584869332735953,
          0.0032569735864710556,
          0.19374006990573106,
          -0.9100839246200704,
          -0.8537988586173855,
          0.023074994923466444,
          -0.07550933987721856,
          -0.9721327619861749
        ],
        "bias": -0.6963281793631949
      },
      {
        "weights": [
          -1.2762594000559015,
          0.11592387424853023,
          0.056612568481351766,
          0.3204523321080479,
          0.11247654697535199,
          -1.1136862409530652,
          -0.12790945042197713,
          -0.046470937040789195
        ],
        "bias": 0.5448687641779276
      },
      {
        "weights": [
          -0.2804139590129309,
          -0.7816960801789387,
          0.43644882342997204,
          -0.2700340938677399,
          0.18334793516368353,
          0.12011965227689157,
          -0.9131801701681702,
          -0.7855041888894653
        ],
        "bias": -0.51236768099569
      },
      {
        "weights": [
          -0.656849639969882,
          -0.5855110140301689,
          -0.5480363857870536,
          -0.9128924408576813,
          0.29465833360135824,
          -0.22336058850315135,
          -0.2161010946506339,
          0.6430276545701038
        ],
        "bias": -1.1207949529813566
      },
      {
        "weights": [
          0.5962859176565212,
          0.05105423027293731,
          -1.236672670668307,
          -0.4528074875617195,
          -0.1880100299445041,
          -1.4028770746225816,
          -0.1249807505194716,
          0.8780858033106999
        ],
        "bias": 0.21079260243078857
      },
      {
        "weights": [
          0.753706006422262,
          0.27810487011069984,
          1.2160635303267968,
          0.8310965247324775,
          -1.1429170772844264,
          0.4881019484183231,
          -0.31590330839235026,
          -1.0033056248345442
        ],
        "bias": 0.30588475009648364
      },
      {
        "weights": [
          1.0158622210112556,
          -0.3494145411446721,
          -0.6067035180893027,
          -0.9035972161858423,
          0.6399337740017245,
          0.8210184159315694,
          0.32713490414541874,
          -0.005187933365833675
        ],
        "bias": 1.1634297267819074
      },
      {
        "weights": [
          0.5311001024057004,
          0.046941973041035,
          0.14824268130838064,
          -1.2749274723831154,
          0.606677383465367,
          -0.6450215849641628,
          -0.17112255834711945,
          0.5441512455333938
        ],
        "bias": -0.20542383628265676
      },
      {
        "weights": [
          -0.46429167572135555,
          0.198757432153507,
          -0.774096836397568,
          0.6473090757567119,
          -0.63327167405139,
          -1.0515997677355902,
          0.4699931273462816,
          -0.6365960705657413
        ],
        "bias": -0.010531560015431651
      },
      {
        "weights": [
          0.047367004688226966,
          0.16232048058487447,
          0.8976087469793143,
          0.11748563012517367,
          -0.6805266405360209,
          -0.3805179613883242,
          -1.3975378678496913,
          -1.2248268552187733
        ],
        "bias": -0.7785860583954273
      },
      {
        "weights": [
          -0.25766911322191033,
          0.627499786846349,
          1.0220445197827874,
          0.47856462946822126,
          0.18110388346203962,
          -0.8567951535554156,
          1.2589321304889676,
          0.1195626885354726
        ],
        "bias": 0.5398800126939207
      },
      {
        "weights": [
          0.5745093553945608,
          0.07453645802027845,
          -0.23282721265665676,
          -0.3952706709975131,
          0.036493007492365614,
          0.4857697429828407,
          -0.242783536452099,
          0.35993221874389514
        ],
        "bias": -0.3668611933399117
      },
      {
        "weights": [
          -0.35004382154014363,
          0.14120812817407755,
          -0.10602192153126001,
          -0.7644780470187609,
          -0.247085984645934,
          1.246756637767514,
          0.20895842235815448,
          -0.3791642178891393
        ],
        "bias": -0.5202896959374025
      },
      {
        "weights": [
          -0.31474173737177363,
          0.31882116081018314,
          -0.5363242464999839,
          0.17503445649891197,
          -0.16715387823965536,
          0.5640612542171224,
          -0.6324310597496956,
          -0.6518992499854676
        ],
        "bias": 0.9714694793545038
      }
    ],
    [
      {
        "weights": [
          -0.05322709394873901,
          0.8043251457849909,
          1.0931058502368518,
          -0.06783508334622036,
          -0.21801077500332325,
          -0.582476452492074,
          0.8536938062531488,
          0.15601721557246465,
          0.9660818514988351,
          0.8622891759385278,
          -0.05840974524034942,
          -0.031806091824144817,
          0.09004933219265003,
          0.6831105955535102,
          -0.24520054617085993,
          0.5190476833697611
        ],
        "bias": 0.6500114961089565
      },
      {
        "weights": [
          -0.7504054996128188,
          0.31260860199249857,
          0.29126087074178036,
          -0.5699165724442448,
          -0.8985929638236045,
          1.2190549413963925,
          0.4819953888562912,
          -0.7913182327194828,
          -1.1842994153848792,
          0.30938629146262386,
          0.8669060300322936,
          0.23410645720934514,
          0.040749751718702154,
          -0.6288490499948716,
          0.23517630359279917,
          -1.0227631528511947
        ],
        "bias": 0.38314388910992075
      },
      {
        "weights": [
          0.7723832860048578,
          0.16149605041616272,
          0.6793467565748739,
          1.2073533447014744,
          0.8027682760457577,
          -0.8481669041039953,
          -0.915556301408685,
          0.5502794005462515,
          -0.12923105943459706,
          0.5948901364705743,
          -0.2865747104645404,
          0.4964074984026914,
          -0.5839565394592577,
          -0.5129386034104836,
          0.012724485837478441,
          -0.9414682455294568
        ],
        "bias": -0.5215652725061419
      },
      {
        "weights": [
          -0.13533245835251112,
          -0.023307584079559754,
          0.5636861738350789,
          -0.6327748035140721,
          0.7314615158460563,
          -0.02102402563038408,
          -0.6229636915909054,
          0.12795249942020442,
          -1.0566316376397886,
          -0.0018116104413066492,
          -0.3704173174486672,
          0.5693258990599191,
          -0.6396915968851307,
          1.0621097682034004,
          -0.7293236953173947,
          -0.042462563168494644
        ],
        "bias": 0.5745320956811932
      }
    ]
  ],
  "structure": [
    8,
    16,
    4
  ],
  "fitness": 117
}