{
  "layers": [
    [
      {
        "weights": [
          -0.29198596683660843,
          -0.08012321939778962,
          -0.692689956671779,
          -0.43139412311576436,
          -0.5274408279966544,
          0.2093505165942937
        ],
        "bias": 0.4004604010993411
      },
      {
        "weights": [
          -0.4351770359658784,
          -0.9025968073640824,
          0.6536607558494979,
          -0.8374674257395552,
          0.6492622683968681,
          -0.5514059091158894
        ],
        "bias": -0.1418175381421724
      },
      {
        "weights": [
          0.1960451521659778,
          0.6174173818611592,
          0.026901276214411032,
          -0.2110511475990621,
          0.1602386906178071,
          0.7273333834069207
        ],
        "bias": -1.3082750273118033
      },
      {
        "weights": [
          0.5012118741209779,
          0.03299391371460651,
          0.4014163116628857,
          1.133970034915686,
          -0.5209545249029771,
          -1.2362971180085796
        ],
        "bias": 0.8836468198324944
      },
      {
        "weights": [
          -0.36026970615359855,
          0.2216959026895588,
          0.03360182000039373,
          -0.8256773342004244,
          0.7074317076562646,
          1.2776914296552482
        ],
        "bias": 0.14057804029374016
      },
      {
        "weights": [
          0.6034554516847846,
          0.5739668478104798,
          -1.3586446725061991,
          0.18943169597499984,
          -0.06551635102947662,
          -0.7869269846625268
        ],
        "bias": 0.36738935752784385
      },
      {
        "weights": [
          0.692087431457461,
          0.869071629489148,
          1.0858348468528973,
          0.15047683861370184,
          0.16402600773826037,
          0.7204548883892758
        ],
        "bias": -0.10880780317877495
      },
      {
        "weights": [
          0.8589295424962881,
          0.1942047764858385,
          -0.025586695059197737,
          -0.8598612309719982,
          0.5282914909085368,
          -0.08012998239876076
        ],
        "bias": -0.35172379663455855
      },
      {
        "weights": [
          -0.6000387356444173,
          0.1122286550815067,
          -0.33051661620896955,
          0.3683856084440777,
          1.1176589988414085,
          1.0035704510766308
        ],
        "bias": -0.2944605780170866
      },
      {
        "weights": [
          -0.9171278809138647,
          0.574883029796084,
          0.15213291222023034,
          0.8379326744363678,
          0.30650980347212065,
          0.672962113570056
        ],
        "bias": -0.327729818111438
      },
      {
        "weights": [
          -0.9418732033176168,
          -0.6408693062421995,
          -0.1942508349257406,
          1.0748910776529084,
          0.5840733278161034,
          1.276176243232789
        ],
        "bias": -0.8808902520570097
      },
      {
        "weights": [
          0.8881016857747699,
          0.9350294874770734,
          -0.3394278613647384,
          1.1258267642984863,
          -0.35820380310654387,
          0.9721546466470171
        ],
        "bias": -0.1858349201449616
      }
    ],
    [
      {
        "weights": [
          -0.7743406155120474,
          -0.04141663452926672,
          -0.6153293922965277,
          0.12993735172228923,
          -1.1551389356101638,
          0.6581752696361387,
          0.036789927863105476,
          0.0884753818207679,
          -1.2257662034486096,
          -0.1531452425876183,
          -0.1902765069329082,
          -0.7428061814056097
        ],
        "bias": -0.0056657327150248585
      },
      {
        "weights": [
          1.0385975471327573,
          0.7865192038604691,
          0.09943803762243598,
          -1.0352379604362587,
          -0.08127139883816807,
          0.516448259411422,
          -0.8450716239891335,
          -0.9563219600333109,
          -0.9320069052087221,
          0.7523413792203251,
          -0.3149968701954066,
          -0.020527592549273693
        ],
        "bias": 0.4759584805691176
      }
    ]
  ],
  "structure": [
    6,
    12,
    2
  ],
  "fitness": 923.0
}