{
  "structure": [
    6,
    12,
    2
  ],
  "fitness": null,
  "layers": [
    [
      {
        "weights": [
          2.3535193224536815,
          0.9173145009380357,
          0.6512996489135281,
          -0.14651678764750287,
          0.34123819202768185,
          -0.6933250510703971
        ],
        "bias": 4.687298115885246
      },
      {
        "weights": [
          24.307649763140212,
          0.7694008509880242,
          0.7941429431960453,
          -0.60246005413839,
          -0.6991803149119771,
          -1.1044593275214776
        ],
        "bias": 23.827131711820716
      },
      {
        "weights": [
          -0.15621569287183498,
          -0.13121257719893648,
          -0.2005234637843143,
          0.2541022470668092,
          2.537474334805973,
          1.8388642837725895
        ],
        "bias": 4.551766231607082
      },
      {
        "weights": [
          -0.4791281497927052,
          -1.0294930242260607,
          0.18596054560764944,
          2.434023080907251,
          0.5361767783079372,
          3.6581987037394024
        ],
        "bias": 5.597696194222921
      },
      {
        "weights": [
          17.529658343512583,
          -0.11049910496846155,
          0.017694236962439814,
          -1.3597904275639168,
          -1.5197624536726897,
          -0.656209192794896
        ],
        "bias": 15.86673918873304
      },
      {
        "weights": [
          -0.8917875786526037,
          -1.2254802641723515,
          -0.45806932844756887,
          3.471297895136069,
          2.9225146445572427,
          2.148139940390032
        ],
        "bias": 5.7272264763308485
      },
      {
        "weights": [
          6.623718399764965,
          -0.09975669458922483,
          0.5584184926113843,
          0.8247011702090866,
          1.8277851955918716,
          0.14431802176508696
        ],
        "bias": 8.842988339366661
      },
      {
        "weights": [
          -1.4283904072734361,
          -0.608101384986371,
          2.2189706163840057,
          2.3093857535822977,
          1.3609332456129835,
          2.0619722453390317
        ],
        "bias": 5.182124072532007
      },
      {
        "weights": [
          7.8038208167226095,
          -0.5066054577596272,
          1.0123990500416336,
          0.3795435038138865,
          -0.14506915083609012,
          1.3094058680546221
        ],
        "bias": 9.512539006156224
      },
      {
        "weights": [
          27.510354570927685,
          1.6621905487676956,
          0.8112524037202616,
          0.7328619650804451,
          -0.7644008080094307,
          0.16849823460549807
        ],
        "bias": 27.733919637010416
      },
      {
        "weights": [
          3.4066117512407352,
          0.509883118785873,
          -0.36209938555545373,
          -0.03579512524985913,
          1.4459299954116451,
          1.6991274642030492
        ],
        "bias": 6.107008435464696
      },
      {
        "weights": [
          -0.17970106558079493,
          0.4907142197555959,
          1.4757790246085845,
          1.1806542761603565,
          1.188215964407627,
          -0.21750180500690725
        ],
        "bias": 4.009047991883738
      }
    ],
    [
      {
        "weights": [
          2.921878946308855,
          11.218523955338346,
          1.8290156997452853,
          1.8121542236341102,
          14.19690811999078,
          2.30323299903915,
          5.107353332257982,
          3.002166891939027,
          4.821664522889992,
          10.706017659866083,
          3.773229501688744,
          2.335322193593204
        ],
        "bias": 22.537661984724796
      },
      {
        "weights": [
          -1.6238286041443448,
          0.023957762279872168,
          -2.6488095176577375,
          -3.525430885523869,
          0.5822028735353285,
          -4.725807623084221,
          -1.4872600844115114,
          -4.0213907730730245,
          -1.9754868794752507,
          -2.5131021430153595,
          -2.05158253117916,
          -1.821652681804906
        ],
        "bias": -8.883336313874741
      }
    ]
  ]
}