{
  "structure": [
    64,
    32,
    10
  ],
  "fitness": null,
  "layers": [
    [
      {
        "weights": [
          -0.7786076366600994,
          0.8131117315007447,
          0.6052482701687186,
          -0.2229729253796719,
          1.1471498567994791,
          0.27035042981057406,
          -0.05111719693334215,
          0.048223644910505285,
          -0.908323111467706,
          -0.10457140009873676,
          1.1578581394913432,
          -0.4046639905822739,
          0.9159334127238111,
          0.4940162079369219,
          -0.5157518226662462,
          0.9459949090451581,
          -0.47994879026882353,
          -0.6246687850972038,
          -0.2017616074306319,
          -0.663997533855328,
          1.1468249220524043,
          0.25513450662513404,
          -0.3478673454914299,
          -0.3199838224575964,
          -0.8079510011766174,
          0.4070081865248481,
          0.8907371053106475,
          0.7028885298442763,
          -0.3374525765141063,
          1.0473215972029337,
          -0.5770527935421979,
          -0.6260053019576739,
          -0.8352078228010095,
          0.041277242381362315,
          0.48324881131965003,
          -0.5812097930431958,
          0.2841691389307087,
          0.5346593180262261,
          0.8814415163568528,
          0.978231851117187,
          0.5288123453244098,
          -0.8762484152877432,
          -0.669082137026464,
          -0.056506086367094234,
          0.842618048430461,
          0.3463974897804482,
          0.39661902444733865,
          0.4411060939582125,
          0.7755405702325261,
          0.5131930989179146,
          0.9949689179653719,
          0.7590144116471177,
          0.41029059144277025,
          -0.6108816336948243,
          0.48332389356305494,
          -0.4891637944699998,
          -0.5118389193465454,
          0.3139966117871427,
          -0.22738372414993635,
          0.16640043025125448,
          0.5616990265715618,
          0.3551008629114989,
          0.2886565994837717,
          0.15079497406327508
        ],
        "bias": -0.10671893726327764
      },
      {
        "weights": [
          0.38489626204938654,
          0.2731869035931731,
          -0.5778400294723656,
          -0.6051037441664489,
          0.2398599451940712,
          0.9201302858942264,
          -0.603965446211231,
          -0.020611663676959602,
          0.5598268760060163,
          -0.28513671438517724,
          0.6948641477555016,
          -0.7373005177069827,
          -0.41678994316357787,
          0.5922521221390064,
          0.4678903554735827,
          -0.335113782799988,
          0.07443954325165301,
          0.7902110720205173,
          -1.8672905696813216,
          -1.0369200335745472,
          0.26032971312406167,
          -1.5334754288040309,
          -0.7922574437178999,
          1.0203535440941869,
          -0.8834158067099812,
          -1.7668594213617985,
          -1.349631799450088,
          -0.1500820248599745,
          2.618814097081575,
          -2.2092087226863213,
          -1.9364201715981344,
          0.6980999077339964,
          -0.41153818800587133,
          -0.640370878795621,
          -0.4277748174760942,
          2.603103551238302,
          1.0891022159742598,
          -1.5766167889776874,
          -0.938790524221789,
          0.5573692438133797,
          -0.3249418554303913,
          -1.1581241141730096,
          2.1696660668413834,
          1.894329785257973,
          0.3232388005935931,
          -1.2456295589408386,
          1.2478035729858512,
          -0.3404528849148607,
          0.08819850167338258,
          0.5592464298038218,
          0.8372286318010848,
          1.0885527415059837,
          -1.0105773534637577,
          0.7260830994637417,
          1.33085064758066,
          -0.39882165793591123,
          0.7445399411421241,
          0.96493762709393,
          0.4073747033881376,
          0.6552734225649335,
          0.3430803593678338,
          -0.5861929530317053,
          -0.006207080229939736,
          -0.12240489375682315
        ],
        "bias": -0.44626493249976323
      },
      {
        "weights": [
          0.062160417330215934,
          -0.7060569913449446,
          0.22502529738916802,
          -0.584967896821826,
          -0.3868687658251426,
          0.021030921597987032,
          1.356291720866049,
          0.7249765122205519,
          -0.11780260333060864,
          -1.4883602154452003,
          -0.8331600371823967,
          0.8944523715844989,
          -0.5910732372140315,
          0.1527469105903696,
          -0.5746381190159562,
          0.6876096270700391,
          -0.47623759397855087,
          0.3887314354465473,
          2.1925946580761146,
          2.6447250088942362,
          -1.6956921898755741,
          -3.8019661473844195,
          -2.722938233555739,
          0.6660977440461942,
          0.0388853108734969,
          0.5413568561011161,
          2.1945273480060443,
          -1.6358826521214356,
          -1.2854187757587132,
          -1.3014168280721625,
          -0.5031902184662036,
          -0.2604174222680174,
          0.46085338669751486,
          -0.08783079444223528,
          0.46902196639176014,
          -1.835892631654646,
          -1.2419270178609263,
          -1.707010753645656,
          0.17577735614118029,
          -0.5622202327271126,
          -0.6514712973602816,
          -1.7748408438381478,
          0.09233878045107721,
          -0.5084138762440913,
          -1.8706133972367815,
          -0.12479400170730365,
          0.9963564016991051,
          0.7914906453467425,
          -0.05009335473813213,
          -1.2795520291830926,
          0.12234822071459835,
          0.8818983190661939,
          1.8483886334804367,
          -0.3498711930234048,
          0.6182821876892334,
          0.7006061446799555,
          0.4431407447043355,
          0.40777866851349487,
          -0.3966734010626681,
          -0.2479849520403342,
          0.29817524251298577,
          -0.2035740338022645,
          -0.6648993414426146,
          0.8369435475071135
        ],
        "bias": -3.2305918276436
      },
      {
        "weights": [
          0.0947031011072863,
          0.6422044418301088,
          -0.33544064937018,
          -0.9236297416704504,
          1.2633445153328813,
          0.5345101173041977,
          0.5228198336133739,
          -0.03821845985323662,
          0.574509072178383,
          0.44929904168162627,
          -0.8034772451360678,
          0.4732308922636038,
          -0.9198795716472367,
          0.1342804508839994,
          -0.7648202083823649,
          -0.723644980508864,
          0.11119657408760479,
          -0.8267875139646753,
          0.291395979905584,
          1.1320639797820433,
          -0.8125203743397944,
          0.3618211642561862,
          0.7216963643789732,
          -0.055660264306358925,
          -0.7841829847283976,
          -0.6332186190704492,
          -0.21790970324386746,
          -0.6937297776708623,
          -0.1793528376790211,
          0.40584837871206825,
          -0.9605802968298442,
          0.8373373395679193,
          0.9475711137683095,
          -0.005728947740030809,
          -0.6984694638503169,
          0.10724546256421441,
          -0.6671836324757303,
          -0.993300649065009,
          -0.7526494357626633,
          0.32927435889591217,
          0.7084147228557369,
          -0.527095003402547,
          0.37611847941623916,
          -0.433946021938282,
          0.9345977316937807,
          -0.3986229279606014,
          0.5897521334642766,
          0.08337711472514449,
          -0.8738573297955725,
          0.4460114903467982,
          -0.5310220703538168,
          0.8335932475560619,
          0.7278408403640869,
          -0.31049797929238954,
          -0.5013892718695679,
          0.49799717226338697,
          0.3679003647672419,
          0.8757944484153465,
          0.14942597882971861,
          -0.8602660667239848,
          -0.5100264064536904,
          -0.7659984275710259,
          -0.11197094101394184,
          0.6349309142988733
        ],
        "bias": -0.1775390872805012
      },
      {
        "weights": [
          -0.1336617182778428,
          -0.4015704718081385,
          -1.0060738746331392,
          0.04520042058363172,
          0.09000028578012213,
          -0.9174139308883056,
          -0.524573192673613,
          -0.7812889133134853,
          -0.16968130751964725,
          1.2665728416893964,
          -0.20455359783677496,
          -0.9732370741414593,
          0.35423293079170576,
          0.20606518134148488,
          0.7412740727847573,
          -0.3699963220647183,
          0.28094770856309575,
          -0.4287910251081803,
          -1.816052386579094,
          0.2164266959202955,
          1.887578069448065,
          2.4369321963515382,
          1.7771619987026042,
          0.5373993492506494,
          -0.8692891843829162,
          -0.9487435753393252,
          -0.899928496820356,
          0.8295415826734096,
          1.8428181289143724,
          0.5916881996033774,
          -0.5897121943705999,
          0.1646463878722515,
          0.4369108316261467,
          0.26929354977680253,
          0.32587410970411806,
          0.9653003792501882,
          1.7875585821217572,
          1.6715580381721902,
          -1.028234550232383,
          0.39452506816860633,
          -0.3966514655517181,
          0.8601553951565462,
          -2.290988196885236,
          -0.9398672423582823,
          0.9234616446711146,
          -0.3063899326865073,
          0.5835237335422009,
          0.26184798118266,
          -0.6031936564523277,
          0.6695511774847835,
          -0.3909395854824659,
          -1.9344404365228591,
          -1.50736574870907,
          -0.3942433742867299,
          0.7549026650641969,
          0.5587576215021812,
          -0.41984149915452124,
          -0.6588159422587637,
          -0.12941241701381923,
          -0.3379327048279757,
          0.12169409249031224,
          0.21721065090539995,
          -1.7738717907639598,
          -0.962892428228182
        ],
        "bias": 0.6585795865137396
      },
      {
        "weights": [
          -0.4578722436747087,
          0.8839564924375706,
          0.2071958142232091,
          0.17539017443182295,
          0.4035755050430104,
          0.05948222684287196,
          0.8169268126426363,
          0.6843737422932444,
          -0.301436561191648,
          1.7134281941588947,
          0.9220585247218928,
          1.6798337756788844,
          0.7674087875692234,
          -0.7142444951445434,
          -0.13022456943115698,
          0.20747046739208136,
          0.6917826269536698,
          -1.0415672836420025,
          -0.9871486084923338,
          -4.210222668954724,
          -0.8027087449628397,
          -0.4245547983872156,
          0.21233949565027097,
          0.9604450096670547,
          -0.5255329937391315,
          -0.4999614726111794,
          -1.8117414998124175,
          -2.3376696914200155,
          -0.8785942708076824,
          -1.852409783389595,
          -1.088203043339592,
          0.556855984545544,
          -0.4216909995524058,
          0.3107727412818448,
          1.246194619687684,
          0.1000983227202196,
          0.7926145652488864,
          -0.2822385459350614,
          1.0263698651778963,
          -0.30840367984919714,
          -0.4819851827879208,
          -1.7715498049149867,
          1.3719316311136303,
          -0.024930976359436332,
          -0.8667182684763062,
          0.17847795127406652,
          0.9121537149431252,
          -0.07475464169364467,
          0.6174231010677217,
          -1.5734468406003146,
          -0.5858078404240032,
          2.1474102208084282,
          0.32405082114100214,
          1.3222928055570793,
          -0.04940288334858771,
          -0.7843437062861238,
          -0.3206804344752748,
          1.0261209626434826,
          1.1987528100279503,
          0.3715356643751394,
          -0.22278036137878732,
          1.716670475858831,
          0.9866647928647272,
          -0.634389011758617
        ],
        "bias": 0.8916907087340871
      },
      {
        "weights": [
          0.6727828184923184,
          0.5403247740204155,
          0.6295392525751368,
          1.4174686618400278,
          0.6147871026894283,
          1.3949043912434065,
          -0.7311378687122111,
          -0.5549971157828323,
          0.11370080701843997,
          0.18710654333247206,
          1.0799168792062783,
          -0.152259117343517,
          1.2668605228028007,
          1.6174449138781593,
          -0.4305158555410094,
          -0.6569351837572656,
          -0.14710791469379678,
          0.36416055724184065,
          -0.20388266299021837,
          0.13367941232013925,
          0.10608379287951197,
          2.4603310785117474,
          0.5789576125017277,
          0.5007191654948212,
          0.29702403266906874,
          0.46763840766749387,
          -0.49824438739844346,
          0.5760781809941166,
          0.0011510946102273102,
          0.832658250960181,
          -0.3084911434290666,
          -0.12123356221993266,
          0.10727739885120892,
          -0.826582893415328,
          -1.1208279074791996,
          -0.14106492735331697,
          -0.9723559682603536,
          -0.12495678519665336,
          -0.043965706964164214,
          -0.05348879643593918,
          0.271698941782972,
          0.24023915116779412,
          -1.2358309738664262,
          -0.35153084901296133,
          -0.2751126254826654,
          0.5847142998531322,
          -0.14086974459591697,
          0.6925207859125171,
          -1.0169321471511916,
          0.8896355202390667,
          0.3246898434639257,
          -0.8321485140815443,
          -0.44635522130396604,
          -0.5294484461611205,
          -1.1017745259716127,
          -0.808087877167146,
          0.5508945160870794,
          -0.39168796236535747,
          -0.6004705056917168,
          1.8906683711590204,
          -0.3235607295062,
          -1.2654832228285542,
          0.7923114482068121,
          0.7728624426193688
        ],
        "bias": 0.7376328622724307
      },
      {
        "weights": [
          -0.8323783584664863,
          -0.5584631895541845,
          0.3680901672320577,
          -0.7955301284447411,
          -0.7112293451541589,
          0.38986726678686295,
          -0.8955026351074893,
          0.05206416642857404,
          0.008057273128213143,
          -1.4954212216247786,
          -1.3003348087474889,
          -0.9261135472165377,
          1.4555036853579737,
          -1.366731597062383,
          -0.5375351610056976,
          -0.22162050774343317,
          -0.07019505400608,
          -0.8819252437158048,
          -0.4206512051158696,
          2.265958437295438,
          2.4006034967943624,
          -0.6979307377521412,
          -0.13182867949286406,
          -0.7286940745143377,
          -0.20442797973390991,
          0.8313827354212775,
          -0.6583864471301196,
          -2.154983814326336,
          -1.7149438416241476,
          0.6574956246418202,
          -0.5117652615487154,
          -0.46995416498880815,
          0.9333115403996712,
          -0.2331596178526002,
          -0.10191786082679348,
          -2.9228605904361267,
          -2.558278388597725,
          -0.17870718513021994,
          0.19834089791018028,
          0.07840179329031027,
          -0.6019619499313044,
          -0.489571716436552,
          0.7779234199216815,
          3.0738182771535483,
          0.9727055124902964,
          -1.1912034979836414,
          -1.2972215012502322,
          -0.9626316544082755,
          0.27476997207922127,
          -0.3467529355107807,
          -0.4744884285146761,
          1.1955040435050863,
          1.9576419251579857,
          -0.3653682548221825,
          -0.016440208018436746,
          0.9671348204125182,
          0.3922489665654856,
          0.7285605526152726,
          0.06970404163730919,
          -1.9780109704300175,
          0.15532142071443802,
          1.3006909013973382,
          2.0007490322741264,
          0.1760032606391846
        ],
        "bias": -3.893823749592471
      },
      {
        "weights": [
          -0.8029135965532417,
          0.04874008310793653,
          -0.8427465509476753,
          -0.6980916314589976,
          -0.9041594190561344,
          -0.531240227011708,
          -0.2323691229015203,
          -0.2302867184748026,
          0.6739571691390834,
          -0.8451978139683886,
          -0.26902761142623116,
          0.2136650122899482,
          -0.03500152829760506,
          -0.3734419651139315,
          -0.20915383664681714,
          0.8464107814981903,
          0.92780108605601,
          -0.5041815284150692,
          -0.11691483162273422,
          -0.8956171010293098,
          -0.5454593780412051,
          0.3091681954271259,
          -0.4419430039148212,
          0.41374657108751595,
          0.8602624954191622,
          0.2642520680577841,
          0.13949172547432667,
          -1.6665373303854043,
          -2.0436717692594937,
          0.26136063141938165,
          1.9065635170560251,
          -0.45544589092858573,
          -0.24138064007249424,
          1.6663886627502333,
          1.882908575687028,
          0.02637748561267353,
          -0.7515926028147469,
          0.8718021402137195,
          2.231445507318348,
          -0.35195758773819885,
          -0.019375132795424528,
          0.7295079155013766,
          0.7496948549952791,
          -0.31590106781655164,
          0.1806669492056116,
          0.9781754219249792,
          1.3963160407070512,
          -0.8081844281587125,
          -0.13832127982855247,
          1.6303123363003218,
          -0.10337782705503482,
          -0.313486496191606,
          -0.0610984115591819,
          -0.29671694722345776,
          -0.14393469348087048,
          0.5654188507308323,
          0.2903114442135463,
          -0.5779698020697358,
          -1.0875446288088588,
          -0.2404342325469879,
          1.6865089046487403,
          -1.4256317122660405,
          -0.28175003061054316,
          -0.8815008896860874
        ],
        "bias": 0.20197163331223744
      },
      {
        "weights": [
          0.11933205519120782,
          0.3325112028080231,
          -0.6199809920209862,
          0.27856061441970004,
          -0.09758132565036741,
          -0.4484129563951968,
          0.1351884097194886,
          0.6363655678752153,
          -0.41018240752589197,
          -1.138671051870753,
          -0.4748810719755272,
          -0.7954483450887799,
          0.16641142990916447,
          0.12389496483495155,
          -0.6819494929397628,
          -0.009842854913839651,
          -0.5844784992206083,
          -0.23541586481456847,
          1.7425123452603863,
          0.11862608185775218,
          -0.8383138646424497,
          1.1162219960386979,
          -0.0025954654107187766,
          0.37818997245549846,
          0.05395664674446372,
          0.4015436151876315,
          -0.3290917606150962,
          -0.6125876839133158,
          -1.191836684021988,
          -0.6368139075019102,
          1.3323580754484754,
          -0.12797963742699064,
          -0.6735177266121615,
          0.7914981321405299,
          0.11604634147364223,
          -0.5200146185206573,
          -0.5820536701352428,
          0.07669707116031953,
          -0.07880988390013402,
          0.2154766411335194,
          0.9954140001382786,
          1.1946906391352698,
          1.5252061390608762,
          0.5126951299256871,
          0.06701450602568391,
          0.6140453862838241,
          -0.9059210672535267,
          0.08928941002292536,
          -0.6658097352996091,
          -0.5116094934987058,
          0.817173236577928,
          -0.6966735255235662,
          1.313494994640571,
          0.4432125296626891,
          0.0721289930077869,
          0.4547581678279042,
          0.2941729265828334,
          0.10940923894970014,
          -0.9945968553048634,
          -1.2664104221109187,
          -0.14612636420259512,
          0.24377869580533806,
          0.48887183867307454,
          0.7675023679093621
        ],
        "bias": 0.5648666853120852
      },
      {
        "weights": [
          0.7255675675228408,
          -1.1217471614000203,
          -0.2284629368537531,
          -0.49833356025772146,
          1.0773431468311576,
          1.4574406235117048,
          -0.37380872946341825,
          -0.23253165220776514,
          -0.3554624369325464,
          0.4579723133157157,
          -1.2383240741987829,
          -0.09351659370440123,
          -0.8782469950835781,
          0.3415540403942589,
          -1.42410358889433,
          -0.49851608940564907,
          0.4976129059140394,
          -0.46097936205755247,
          0.2077618821719561,
          -0.54487975061082,
          -2.076028280249899,
          -2.419566387267081,
          -0.9333795456815769,
          0.6005777419322796,
          -0.5023917289036164,
          0.3688990039889771,
          0.015230299532876915,
          -0.9278686476089009,
          0.52322446585603,
          -1.418643191995584,
          -1.8541721724417415,
          0.5102822914170989,
          0.11077210828776726,
          0.5194932717463538,
          -0.057279650940943914,
          0.9525458485620234,
          -0.6941291832680044,
          0.7345627336537194,
          -0.574887934812215,
          -0.13894545572672046,
          -0.5037913704941555,
          -0.9653797990163923,
          0.4514891577329374,
          0.5776425445139975,
          -0.03215731079683055,
          0.015533447349171805,
          1.012222043727064,
          1.0983602209370231,
          -0.23287166808230156,
          -1.467950667066699,
          -0.45424712292530445,
          -0.410199141196681,
          -0.641083423240399,
          0.5328581333944489,
          0.897199486328854,
          -0.7182798557556781,
          0.32080791727041086,
          0.06361737094209158,
          -0.16918076056523149,
          -0.2538351484691699,
          -0.21574065645329715,
          0.4372228459137373,
          -0.2707169352938673,
          -0.9369342723852055
        ],
        "bias": -1.4148087945774976
      },
      {
        "weights": [
          -0.9402971680143561,
          1.2561637621561241,
          1.7026462180267934,
          1.7913216587842427,
          0.0548872469274021,
          -0.3760226762352433,
          0.6008753732615357,
          1.1405095612277214,
          0.337017668971118,
          -0.2449245529001592,
          1.9209300377706169,
          0.5562602766684447,
          -0.40148452920993477,
          0.07196935624927649,
          0.9121149716091451,
          0.14106483172108436,
          0.33994978756268035,
          0.7469331495371156,
          0.1617715693995283,
          -1.7504585246751667,
          -0.2825675417989616,
          1.4475466485427135,
          0.7400039059560792,
          0.44707256899635744,
          0.7842699807096822,
          -0.2590158173915779,
          -0.8483065751119468,
          0.10883035552130622,
          -0.16731153966689485,
          0.5827841182510797,
          1.713410581376797,
          -0.038935391269356516,
          0.9898574563415913,
          -1.2280519158134453,
          0.022328605242054697,
          -1.2262959106313507,
          -0.43550935728082263,
          -1.2556525816781625,
          -0.8606778135619985,
          -0.47342162711262414,
          0.7995351507595048,
          0.9964144714509001,
          0.8934040437958861,
          -0.28284230884238737,
          -1.0572908688650802,
          -0.7987507231829102,
          -1.1838873505651175,
          -0.24116518853746027,
          -0.5536872154256505,
          0.418843230830176,
          -0.7717490207820449,
          -0.40053332776633227,
          1.3355163245806196,
          0.7058421550511051,
          -0.32611378525154183,
          -0.26119239042596515,
          -0.4219232210195832,
          0.3971921239797926,
          1.2077727384748773,
          0.8215473777587058,
          -2.6098714922687676,
          -1.747046528094536,
          0.8213526282431116,
          0.8618795307090791
        ],
        "bias": 0.9390460925351597
      },
      {
        "weights": [
          -0.7610905679793096,
          -0.6100830095970918,
          0.650438309886885,
          0.13417543569923074,
          0.16899379595909084,
          -0.0739400201304192,
          0.018797007988879056,
          -0.7482785001728166,
          -0.6035184353110449,
          0.8175420824996996,
          0.8489962770997506,
          1.145865257543261,
          0.660405284479732,
          0.3242267200224704,
          -0.5638815515186554,
          0.4242724054410293,
          0.8734448743228345,
          -0.06834664058292014,
          0.6857203431472616,
          0.29343999960493095,
          0.4968494758381007,
          0.3071943266523507,
          0.04918761347450883,
          0.4026573460370521,
          0.9717772980906936,
          0.6027262758832533,
          1.0376884976504435,
          0.8719712430777323,
          -0.34777371662571444,
          0.5251736990673033,
          -0.6530809917848124,
          -0.14753575027804763,
          0.007680797933096796,
          -0.15818472423155974,
          0.31923240159710553,
          0.2331436657771935,
          0.04313570919608054,
          0.15124881302974352,
          0.5903469728049968,
          0.16304082056584912,
          0.5891426065407902,
          0.2583398317374775,
          -0.4057292613305618,
          0.8934532234639461,
          0.9014526452638533,
          0.4651595293653498,
          -0.3269457146332153,
          0.5698843403668015,
          0.5318513547144293,
          0.6232317845070114,
          0.2844312708878266,
          -0.6732889602021054,
          0.6941501684004725,
          0.6799399299131841,
          -0.04094001293745503,
          0.6802177014190287,
          -0.5564358760197186,
          -0.5363795452195058,
          0.8087843901436325,
          -0.6933864961904821,
          0.7486239689742893,
          -0.7264492624573239,
          -0.6912160363315051,
          0.9774822951735018
        ],
        "bias": -0.5553740137063242
      },
      {
        "weights": [
          0.34670702164661504,
          0.7269722885003266,
          -0.9275297905291259,
          0.3469290368825249,
          0.24934936645310163,
          -0.8410402201081194,
          0.1878889628417706,
          0.03920579706267004,
          0.5521671101709328,
          0.8697519341687436,
          -0.3233373509473603,
          -0.6050004800803743,
          -0.998391254215296,
          -0.18427148867028045,
          -0.5632894455086392,
          -0.9095699954469066,
          -0.21208985039427386,
          -0.31989656793773025,
          0.26660068549204763,
          0.06702302431372409,
          0.25956940064234874,
          0.8925390077317461,
          0.5489850994608494,
          -0.07043397735554907,
          -0.4816841809410623,
          0.6941541049058224,
          -0.504964045524784,
          -0.4128473280460264,
          -0.5901771406741827,
          -0.5920530237201546,
          0.5133675360179001,
          0.5955422834750275,
          -0.9607258743389713,
          -0.5358945393665806,
          0.343613104647692,
          -0.3893954784510592,
          -0.48746957343723923,
          0.5555963864941035,
          0.7815997725227967,
          0.08684820180404884,
          -0.8250289143853872,
          -0.8541839468875224,
          -0.6439475257573469,
          -0.3510078621775968,
          -0.9490827911948486,
          -0.32797041989864056,
          0.4493148503734986,
          -0.7308593239410156,
          -0.8201869032750959,
          -0.5092063246405679,
          0.6424018746087954,
          -0.02945360555938332,
          -0.4760413390520112,
          -0.5596946127203936,
          -0.3578480989236237,
          0.011008517108704116,
          0.9741958214592367,
          0.0716295835621992,
          0.8881698510107561,
          -0.647352039896264,
          -0.6781780116281628,
          0.7027577342610151,
          0.41252736785454197,
          0.8203783198478803
        ],
        "bias": 0.3870122093570705
      },
      {
        "weights": [
          0.21610491035949098,
          0.149344986742698,
          -0.540513463407647,
          -1.231854515902643,
          0.5191100147176633,
          -0.12628042095094347,
          -0.5519699639572829,
          -0.2971464691189792,
          -0.30664648325656785,
          0.9692894231969842,
          1.0500132473514525,
          -0.05854804825344143,
          1.165134219713164,
          -0.4353026087140099,
          -1.1966239565339754,
          -0.537877183792139,
          -0.6529508461462099,
          -1.6287413552302337,
          -1.4371313145608997,
          -1.221138071068315,
          -0.4619945447560224,
          -1.0428077824376674,
          -0.13781418060873624,
          0.6772675039729272,
          -0.45654585516439167,
          0.24414732763799246,
          -1.5810683810563964,
          -2.0135649670850477,
          -1.2989775319522312,
          -1.6684589076874548,
          -0.14476375234534172,
          -0.849021814214039,
          -0.3372628137060174,
          0.11562353779603779,
          0.0008524083235265033,
          -1.0878558994830312,
          -1.514047158252955,
          0.6902707707342234,
          0.319673414861153,
          -0.03299109046984294,
          0.8599064057696252,
          0.04699262055546411,
          0.5147800197894311,
          -0.11574309301151904,
          -0.9741954173145194,
          0.5131252185273696,
          0.7206623410628762,
          0.8071001499314469,
          0.38388016620691484,
          -0.3980771549315561,
          1.0002832385881433,
          0.7352542317522486,
          1.0655793154547162,
          2.2010116659850563,
          0.07353003683552578,
          -0.6175198953750345,
          -0.22391476548781736,
          -0.18416913509091615,
          1.0226124938795476,
          0.4040713409736843,
          2.2402996637852146,
          0.8997336918282134,
          -0.4863265393561983,
          -1.0122544399466709
        ],
        "bias": -1.2677249524076484
      },
      {
        "weights": [
          -0.45972931933107675,
          -1.221574108765882,
          1.1622206791978436,
          -1.2901839613550663,
          -0.4886379161616868,
          -1.5382930984914043,
          -0.645130424299785,
          -0.7321510242952605,
          -0.7196804290157979,
          -1.367054945852377,
          -2.794489230512674,
          -0.5234896454699556,
          -0.018374667237079822,
          -2.5584504279258424,
          0.11316829212865037,
          0.1894937129989787,
          -0.9635511416508407,
          0.3147141357509755,
          0.04454800974857614,
          2.5536682416354517,
          2.054175778928769,
          -1.6832596319959299,
          -0.8212720658317066,
          -0.8601074065897789,
          -0.8163458390850937,
          0.17311701905017618,
          0.5790575893496385,
          -0.27138736540115066,
          1.373328713452036,
          0.5575315184826283,
          1.3125539799724748,
          -0.1149446760131051,
          -0.7994429906985059,
          0.070894520256822,
          -0.18646963608037206,
          -1.4881496161607857,
          1.7428476918414573,
          1.5590159070873633,
          0.8579305865190502,
          -0.5197741036070529,
          -0.22168809609939033,
          -0.6351682558896129,
          -0.2885747757923334,
          2.8759340298106073,
          0.681037035449147,
          -1.4069255541878043,
          -2.601685846326805,
          -0.9742786950246872,
          -0.13366044574464667,
          0.646608237579145,
          -1.3090620817536016,
          1.0689419764791497,
          0.9888854777386462,
          -1.0848398809570312,
          0.04519668868007211,
          0.43235575605829735,
          0.6480098354098421,
          1.1826018493128618,
          0.526361369882454,
          -3.5870529569932956,
          -1.8481543776530052,
          1.0549628043253387,
          0.2957147875627309,
          -0.25775257813847113
        ],
        "bias": -2.5135665644741714
      },
      {
        "weights": [
          0.8009489764226865,
          -0.5920319437344397,
          0.26392363227858007,
          -0.8652244073542533,
          0.27980639020710557,
          1.3449682226697268,
          2.566131346322523,
          1.1155974378525824,
          0.4330733464378608,
          -0.09402521936015766,
          -0.20692699693247382,
          0.851040948791528,
          0.8228043924805989,
          0.07265006942230996,
          -0.9557191862889215,
          0.05097043613008697,
          -0.2770795151741522,
          -0.8355225915079807,
          0.407514527651525,
          -0.038746069075930756,
          -1.031010167393062,
          -2.705189919335258,
          -3.244845934468807,
          -0.023739427289382036,
          0.5209236302488619,
          0.8453881196738453,
          0.9485416020013432,
          -0.1636880291206124,
          -0.8900474045880633,
          1.4292869106561445,
          1.3295627272526827,
          0.3837539365431705,
          0.48716809263261496,
          0.9705340258899067,
          -0.500625653909953,
          0.26791689520230444,
          0.8942390523896427,
          0.5075669630486929,
          1.009195689174655,
          -0.6851566327808605,
          0.5259703359280676,
          -0.28715083977071104,
          -1.0526106877183306,
          1.4623861768140891,
          0.11718619489090268,
          -1.1652133401779854,
          -0.2073662358798713,
          -0.21568494143606323,
          0.5268986131686041,
          -0.0703868033143243,
          0.16465388207368425,
          -0.9719673131107963,
          0.48884430722529487,
          -1.3855164370041118,
          0.6911105476899362,
          0.7443658496745221,
          -0.5608190313598506,
          -0.830678944308552,
          -0.7502957464569286,
          -0.8915328380961359,
          -0.8135239953159642,
          0.41127167352117944,
          0.9921717493752942,
          0.3839323919370917
        ],
        "bias": -0.6730867801462352
      },
      {
        "weights": [
          0.6759019596556546,
          -0.7935447237462432,
          -0.21170150447920377,
          0.21941042033580593,
          -1.3320691750918947,
          -1.6590462781999915,
          -0.9061199118565137,
          1.1474856618265508,
          -0.11122846689665748,
          0.7564808687019727,
          0.3308058505252386,
          -0.4767532305567751,
          -0.03223972440521408,
          0.43852985358447344,
          1.5977634376031784,
          -0.07922535723002164,
          0.47705434635482385,
          -0.36792573785189625,
          1.7127953075729339,
          1.742259175396878,
          1.563382565326552,
          2.4408016275321227,
          1.7254655574914357,
          0.1470119022705667,
          -0.652265137146179,
          0.16450677654441812,
          1.8320730808319399,
          0.41460295143429365,
          0.5843844586051725,
          1.4549920045563929,
          2.1524331441764915,
          -0.36150526915272746,
          0.44115064892353717,
          -0.1131618685924599,
          0.5174108962024904,
          -0.37343906572431096,
          0.7856120303222909,
          0.9324684118553809,
          -1.3259287507672395,
          0.7644663713747544,
          -0.8777020816787181,
          1.185184164198213,
          2.307087456635045,
          2.8895938500683354,
          -0.6383103208857812,
          -0.5314552992123993,
          -2.1595976787336375,
          0.14583406734723928,
          -0.9438782528542201,
          -0.5594367746990017,
          0.006073142582206337,
          -0.33944870531868276,
          -1.6962948632725836,
          -2.79646655667619,
          -1.1487702915032443,
          -0.07612807134113835,
          0.05480647266010246,
          0.29610997678569667,
          -1.4481903625812247,
          -0.48028883277483453,
          -0.1440407927789163,
          0.7997199938814443,
          0.23107766996108053,
          1.0581860250945019
        ],
        "bias": 1.2895696585377854
      },
      {
        "weights": [
          -0.3078419859488022,
          -0.40356580212827986,
          -0.3047351313614982,
          -0.3773171616871903,
          -0.7524319674561928,
          -0.4978805245219449,
          -0.5463060354159585,
          0.4917361286932388,
          0.6987057416416435,
          0.8539360058785653,
          0.8093300476236575,
          0.9336669370840871,
          -0.6738947458743749,
          -0.7100855798259639,
          0.705220108379174,
          -0.951711938854816,
          0.691570633851884,
          -0.053925812646910085,
          -0.7444531680628712,
          -1.1365240254730293,
          -1.2492404846718579,
          -1.493226249615348,
          -0.4332267314293593,
          -0.8490152458148957,
          0.38002396805801125,
          0.2673425495146015,
          -1.2243424446313618,
          -0.9208034922415884,
          -0.6093296063034118,
          -0.6115953910329663,
          -1.1967899092201668,
          0.8218969867290223,
          0.5494805124866957,
          -1.442873056720484,
          -2.5246369279861236,
          -1.138221181060557,
          -0.3779900215975124,
          -1.3498391197659667,
          -1.3527944476268627,
          -0.5369553757626577,
          0.731837116932201,
          -1.133146820716273,
          -0.17009640239217613,
          -0.1964805329329075,
          -1.9100967466120542,
          -1.8945396808946369,
          -1.532432688983348,
          -0.5408683249118659,
          0.2483517068044295,
          1.0922078423250121,
          0.25260036111040524,
          1.6382810905605014,
          1.3445045872659018,
          -0.05475244192656937,
          0.5159672306256604,
          -0.279296420538428,
          -0.6108892805086052,
          -0.2765055881829952,
          0.9899941687185307,
          1.1076580075633635,
          1.242891560100403,
          1.5691068386198712,
          1.8441906957680902,
          1.256642664068417
        ],
        "bias": -2.114330245276832
      },
      {
        "weights": [
          -0.404756391704822,
          -1.0823259880601852,
          1.1615014255111529,
          0.14157015288247243,
          -1.0810193135983,
          -0.28694434746056313,
          -0.6445492691521348,
          0.14477824722463808,
          -0.2449428003941631,
          -0.15159906079586855,
          -0.2106865884234499,
          -0.23172140037359565,
          -0.16041860185463513,
          0.9564053028239193,
          0.45590032980763145,
          -0.1671093759520406,
          -0.6900502615709844,
          0.15045905761665027,
          2.0509387640596626,
          0.8393929513516646,
          0.8526767718552687,
          1.9368199119668503,
          -0.2731395256590785,
          -0.44972474160412196,
          -0.15668426260740984,
          0.5002373665870575,
          0.6627066794455202,
          -1.1026351106124832,
          -0.20451604463784148,
          0.01242720491203756,
          1.794043468583287,
          0.06740110170623806,
          -0.8564673280602079,
          0.20064162767587732,
          -0.13182954476160758,
          -1.7353440877266144,
          -1.1795437996700895,
          -0.7232177958772577,
          1.3791695140169493,
          -0.42068466005821725,
          -0.33898840550341397,
          -0.6762806596578691,
          -0.848819530369084,
          -0.1012074705154269,
          -0.5980728618161408,
          0.3154525222863766,
          0.18824395076560546,
          -0.19845093873190459,
          -0.07088981517102592,
          -0.5164994306773543,
          0.5770845344480968,
          -0.0755010229650849,
          -1.410947919930926,
          -1.726945835413629,
          0.32969268530540446,
          0.5760496186766754,
          -0.1444070129730865,
          0.5264432444325641,
          0.4122400682546849,
          0.4265461549441239,
          -0.37775290501970765,
          -1.2687899211679186,
          -0.3339989952162825,
          -0.5645151153805417
        ],
        "bias": 0.7371352215174267
      },
      {
        "weights": [
          0.7522635916542613,
          -0.5366227614007044,
          -0.9148900844834271,
          -0.6829459520984401,
          -0.3859184863660544,
          -0.2806319700215117,
          -0.17757634337349368,
          0.5892882203274721,
          0.732805487014467,
          -0.6445374850846175,
          -0.7375906850817843,
          -0.45302456455037876,
          -1.506972959928948,
          -1.0990956033795243,
          0.43308866622541903,
          -0.1514984074399336,
          -0.6858087774863065,
          -0.17256484144457673,
          2.4560091613268553,
          2.556654602489495,
          -1.5436964958441532,
          -1.992388132327443,
          -1.339123037696319,
          -0.5008796436061681,
          0.3881209595814766,
          0.5825362308544849,
          2.19021372502459,
          1.3950627527567974,
          -0.5546988603947316,
          -0.8125771468562365,
          0.9961940128669903,
          0.41827555927723287,
          -0.5040384289069357,
          0.5803053796766413,
          0.6305990980561405,
          -0.4934385209579458,
          -0.42637866058053214,
          -1.4435258469526282,
          0.10536866871294479,
          -0.553854793647655,
          0.5742403226302555,
          0.22252752602517797,
          1.9852275036057243,
          1.423211611083036,
          0.30578235649606994,
          -0.1269288450500191,
          -0.04690875991749119,
          -0.7157697289042815,
          0.8292292378875362,
          -0.08568502633061001,
          1.4435022064019571,
          1.0301257757526359,
          0.09933451487192273,
          -0.22355218300055876,
          -0.7134073634728154,
          0.7540425466268679,
          -0.4411080762249559,
          -0.23517959073020825,
          -0.17217745463180292,
          1.6809794845683304,
          1.8239046491562196,
          0.2330638883102607,
          -0.2777193429621461,
          0.11829695861330172
        ],
        "bias": 1.9712927108552039
      },
      {
        "weights": [
          -0.06352950234136268,
          0.1301902076317455,
          0.05772190909360438,
          0.28190802463470965,
          -0.07760166677551823,
          0.1927754694895276,
          -0.044642893168688504,
          -0.7843723245581795,
          -0.82413645465094,
          -0.2775607027026748,
          0.014941065248824234,
          -0.5106474058370788,
          -2.1226951958279967,
          -1.768204665108254,
          1.0261809433534892,
          0.3521284807655598,
          -0.11619412434228889,
          0.5332899522164878,
          2.0612643313205217,
          -0.6504358546519247,
          -1.5343745220712213,
          -0.8984935355018305,
          -0.22942447073559932,
          -0.1419770581740323,
          0.29350548954858197,
          -0.45457784354082575,
          0.9043517511669593,
          1.1522851219740882,
          0.4348936835708994,
          0.782215798707568,
          0.2142530823240959,
          -0.2939944431030237,
          -0.9383371729581824,
          0.38057566387068553,
          0.9114370577325146,
          0.05758195313519991,
          0.9398704457116374,
          1.8648618109375805,
          1.9350007769491864,
          -0.5539327057287957,
          0.11202876213822148,
          2.809823011079253,
          -0.7371270806861325,
          0.03229968502851131,
          1.2603835952927092,
          0.4959861654214855,
          0.07557360632453315,
          -0.7767595890432019,
          -0.3298048355394657,
          2.0918751526875146,
          -0.6806650548505033,
          -0.19280876461084417,
          -0.13393272139913495,
          -1.5333376371844425,
          0.035418971393269744,
          -0.3636515910534264,
          0.25196779975482597,
          0.5766704129758744,
          0.904239656805061,
          -2.3453250629020284,
          -0.0013456594526137324,
          -0.5344031968455257,
          -0.8936695914749684,
          -0.6441246283113733
        ],
        "bias": 1.8097878237022773
      },
      {
        "weights": [
          0.35590706123264715,
          0.15651452363973867,
          0.8520471392836162,
          -0.9166083573216076,
          0.44152572635718335,
          1.161939219256534,
          1.4732149034028517,
          0.5700741173914788,
          0.861666295912365,
          0.6491927918220063,
          0.10880978098423151,
          0.426523723087065,
          -0.8727587315932535,
          0.41000935478316436,
          1.367988979355314,
          0.1849396577874894,
          0.7668751013316084,
          -0.4425516908819301,
          -0.6441668585594458,
          0.8041585667046272,
          0.45664798768738407,
          -0.9552958588600823,
          -0.559175873194058,
          0.8159784034027934,
          -0.5622717083292011,
          -0.8722380436412921,
          0.1190820285976943,
          0.8059920620624018,
          0.5284158322514908,
          -0.3320441145082383,
          -1.089262357617701,
          -0.021618155991814565,
          0.5169411857052977,
          0.9063432839888939,
          0.32994554764384076,
          -0.5463703091726908,
          0.48565905849762103,
          1.5048139688667592,
          1.3139541240958112,
          -0.29191005781725354,
          -0.9021012467709478,
          0.47281844793653854,
          -2.8938448480431296,
          -1.0270801028368441,
          2.017325113874122,
          0.18655796157790938,
          0.01269692082895372,
          0.6957988163150723,
          0.38672629046199947,
          1.0651454357524182,
          -0.3534585773444843,
          -0.4222998132191591,
          0.4299240873639959,
          -0.7363429644555403,
          -0.9974512978518448,
          -0.31383774672995285,
          0.8175016311640896,
          -0.08042963507004411,
          0.6107183462988,
          -1.319167615378969,
          0.15450672607410082,
          0.013546087913593503,
          -1.2805900669992958,
          0.008132259384850512
        ],
        "bias": -0.6279046062507057
      },
      {
        "weights": [
          -0.22885262261992967,
          -0.5368619085090293,
          1.7625406964752648,
          1.4260517393819372,
          1.9206750306391527,
          2.6384446456118678,
          1.6616257998678312,
          0.5843887494083052,
          -0.7839005622586683,
          1.254197584029503,
          0.6304031789110359,
          1.055293273633647,
          2.6908485190402627,
          0.2880221893559872,
          -0.08269275205697996,
          0.5487144448741785,
          -0.2397302325755608,
          -0.9344404038027411,
          -2.3366071588058697,
          -1.0923053058400056,
          0.5199542983526314,
          -0.6285790566151348,
          0.4215087376046741,
          -0.6334364513082896,
          -0.613129088363769,
          -0.995308853417851,
          -1.1013817024883754,
          -0.7739326516364566,
          -0.5939843731192125,
          1.0735438313639967,
          -1.5045762566239675,
          -0.12789008343384156,
          0.596276150589654,
          0.3600161872604557,
          -1.1776303421521999,
          1.2455105097446564,
          -1.1445641589803397,
          0.02869944754588642,
          -0.6517268416025969,
          0.6482452981724174,
          -0.852963865619195,
          -1.5112551230976152,
          -2.0214019837341826,
          -2.3868034328378367,
          -0.9749747018752137,
          -0.1348251498224529,
          1.2072472112221768,
          -0.2148156444204399,
          0.8134477849266339,
          -0.3913237513159642,
          -0.8915095023748933,
          0.22940530309846952,
          -0.73846801303108,
          -1.1789403045197941,
          -0.7060558902980303,
          -0.8070676507689946,
          0.8014828026300338,
          -0.0939728436579356,
          0.03165451364457387,
          1.351627250214702,
          -1.1454000854043644,
          -1.311022306146783,
          -0.6600059307842198,
          -0.017338087400988078
        ],
        "bias": -1.2449139825065931
      },
      {
        "weights": [
          0.5015664103252286,
          -0.8547802620344177,
          -0.9682424070239728,
          0.1733349193862966,
          -0.2826887899038708,
          -1.3027028677282566,
          -1.608198411152363,
          0.19511717791925137,
          -0.4095561039403914,
          -0.5334546182555967,
          -0.6876920427522158,
          -2.2041105969668995,
          -1.8555750617056697,
          -0.5019897103865751,
          1.626164983029091,
          -0.5644806399307541,
          -0.5473579617454937,
          0.7810369963522492,
          1.1637793027596015,
          1.6598485439984123,
          0.506434575268484,
          0.041498233278322354,
          0.39313403412668335,
          0.07930758278625051,
          -0.46509647191850206,
          0.5673268926624484,
          -0.07312198670339232,
          0.6442887346553496,
          0.9543449166268074,
          0.5894992217715069,
          -0.9970757139006603,
          0.5449931166242459,
          -0.0113579956729638,
          -1.1341313939972033,
          -0.5554882160862873,
          -0.07463166558486199,
          -0.20379629059605514,
          -1.0079751208959447,
          -0.9034220716715248,
          0.9302183677144524,
          0.35638890348202934,
          -0.3356873393513273,
          -0.6750891222570666,
          -0.38541413719129197,
          0.6419453403825957,
          0.17910629591909338,
          0.6354622974825334,
          -0.8243590835593225,
          -0.8769076474860685,
          0.3069692277260422,
          1.7005661511969934,
          -0.5762073164234974,
          0.35155064441760014,
          -0.1021988103734202,
          0.9175507647313843,
          0.9242094123607778,
          0.4621155739919135,
          -0.5475808762784093,
          0.8361887136918725,
          1.020280733035718,
          2.104538209665162,
          1.005242837299232,
          0.5788995072024536,
          0.2684857901225531
        ],
        "bias": -0.5449258403282248
      },
      {
        "weights": [
          0.4330225332810316,
          0.5710542411148678,
          -0.08565903651790029,
          -1.0912026108346484,
          -0.6634176423142878,
          -0.08015974384359704,
          1.1728795065917983,
          -0.7183238031682967,
          0.6341613743516233,
          -1.0661278883635357,
          0.044584101373081976,
          -0.25547834988919377,
          -0.754096275110062,
          -0.5211143978541094,
          -0.395366370708663,
          0.8536266356864414,
          -0.7103670110743188,
          1.0043706327119772,
          1.396114394600511,
          1.1261500765836756,
          -2.69087669155713,
          -0.1128212920140464,
          -0.4107218088179834,
          -0.16384624879840692,
          0.9084205735879489,
          1.2040664663494451,
          1.5993432951129078,
          0.22316793342105531,
          -0.41790704587950633,
          0.002220450048722681,
          0.7813697974421465,
          0.5544619012079582,
          0.9442609133645634,
          0.5349768735806777,
          1.519378812116158,
          0.9978819285988433,
          -0.28318075846357027,
          -0.3655406792064356,
          0.16506379632721999,
          0.3328606326724204,
          0.5206898391499134,
          1.2175476033954744,
          1.5834219288123708,
          -0.5661302484494705,
          -1.1339243266572603,
          1.028358486428744,
          -0.288067049460065,
          -0.7722252932578663,
          -0.036591623300774055,
          -0.2738167416753166,
          -0.03405541644046387,
          0.5454494400051613,
          0.1157396888623705,
          0.536429899502811,
          0.023070304772205653,
          0.8702647718642424,
          -0.30174662839515165,
          0.3198108960503065,
          0.31203317321387497,
          0.8367874738848968,
          0.8408144945442548,
          -0.24997019847843452,
          -1.0940158261026587,
          -0.26588642209903696
        ],
        "bias": 1.825623862743472
      },
      {
        "weights": [
          0.8071940595840619,
          -0.5038648391965805,
          0.1466302215753593,
          -1.3274245439439591,
          -0.689553889414812,
          0.5330222711166913,
          -0.02424368551538745,
          0.17925963636692194,
          0.0963049024222348,
          -0.4577042966715684,
          -0.4568351431220867,
          0.55709035545995,
          1.2236692111365457,
          0.5167519369371599,
          0.8381539315025394,
          0.2696613187133317,
          0.7887633712271912,
          -0.7514004421323156,
          0.8692223187822795,
          0.18843627120777418,
          -0.3395750521526866,
          -0.45007747943688453,
          -1.0196139766041972,
          -0.3380474239958827,
          0.6878952883894317,
          1.067242701560084,
          0.7009359464664426,
          -0.71849373328456,
          -0.9670186835347613,
          -0.7889580823618078,
          -0.9925490844123701,
          -0.5893499783836554,
          0.21013172275867326,
          -0.3597416484667021,
          0.3913207934696492,
          -0.9713236206478495,
          -1.4848660468748403,
          0.25016129440085777,
          0.1799898645791092,
          0.6294716225212011,
          0.26771208059085816,
          -0.2731745252777994,
          1.4450222565726545,
          -0.1770970868934482,
          -1.3182719953831334,
          -0.4440256000204277,
          -0.7909363471849634,
          -0.32976940310918385,
          0.5241200991815607,
          -0.022084470548171156,
          0.3469037095619345,
          -0.0021186586982967787,
          1.3747137018220164,
          0.7599371316450463,
          -0.02797674487946276,
          0.9503777371755371,
          -0.5067906615602343,
          1.0455614183074848,
          0.4489894488124482,
          0.6155738736611762,
          1.0265572581735498,
          0.30990140300135144,
          -0.9092060975353273,
          -0.5292986459251455
        ],
        "bias": -0.31160397840893633
      },
      {
        "weights": [
          0.1733667796034648,
          0.2097332178009417,
          1.2584983165863874,
          0.03301096708437294,
          -0.39242228449803407,
          0.24936166020055994,
          0.7649024501819703,
          0.510158978825501,
          0.8757308397499568,
          0.44231520711807043,
          0.8138900492610788,
          0.19673798846624882,
          -0.5243324618789346,
          -0.8241396931987638,
          0.2914864964394711,
          -0.7114507698384211,
          0.7078492166730871,
          0.8533259730415883,
          1.0192406534237877,
          -0.5831935014568863,
          -0.8101012160473873,
          1.2795918310134788,
          1.1825435474285753,
          -0.3403288374162965,
          -0.613780057097048,
          -0.5864693946378307,
          1.247931569212452,
          0.20983747930550004,
          0.6771160548685211,
          0.7187516392647542,
          0.8721456133463562,
          -0.35095952674408126,
          -0.9650004508706221,
          0.33787770841336096,
          -1.093292839476932,
          0.8505186303134693,
          1.3782548476335599,
          0.02250364686960734,
          -0.4080421328974576,
          -0.23990565420400944,
          -0.5848401929802589,
          -0.8551433292093364,
          -1.1955451810079758,
          -0.12010907380133727,
          0.855465869254539,
          -0.6480155191062897,
          -1.7355354066928559,
          -0.8509423800040746,
          0.2719671421213896,
          0.2258460193804814,
          -1.2727789721948033,
          -0.025490391883321497,
          0.027019899725022018,
          -0.74864583472035,
          -0.2906488599621925,
          -0.4539104481857066,
          -0.0032846601378569277,
          0.9467283316503544,
          0.02003030029064228,
          0.9629260645238544,
          0.8321925072397649,
          0.4604405356865481,
          -0.029098598529610057,
          0.9205938814675738
        ],
        "bias": 0.4730330140653968
      },
      {
        "weights": [
          0.4158715864600093,
          0.3338388194077005,
          -1.4909356473286948,
          -0.7958340315844944,
          0.10068916272926938,
          -0.42910393135767755,
          -1.3044566484575144,
          0.7648839736713697,
          -0.29777811443743,
          -1.0277526597476052,
          -0.7757484833350626,
          -0.8562527329546654,
          0.2625538422882763,
          -0.019783048666614546,
          -0.1704842950662197,
          0.5769694164864988,
          -0.8260741268577105,
          0.008921516681913927,
          -0.4829838839401391,
          0.016671337081774665,
          -0.12149156623216512,
          0.33257107412363807,
          1.4103494244356483,
          0.012972648536752715,
          0.12228213303024188,
          -0.17788236478796268,
          -0.27954745091627137,
          0.013649394613576449,
          -1.0915426240966954,
          -1.2292771978115946,
          1.2129326897853108,
          -0.1882274730746775,
          -0.3796802122943743,
          -0.5659011942905803,
          0.5236051576463663,
          -0.7145073759181194,
          0.3621941405295839,
          0.25846245325616407,
          0.29208812052628813,
          0.2711681617890147,
          0.6258000701756145,
          2.189082285326807,
          6.031206465651248,
          3.785080702926235,
          2.0475157036844998,
          -0.22966296786425128,
          -0.62972043633782,
          0.12155763145865082,
          0.551498472318279,
          0.7858915152313055,
          0.013009300959235979,
          0.9913754144282508,
          2.201652010244136,
          1.1852451683798548,
          1.1576665715065497,
          -0.49343893865561456,
          -0.26519590111398317,
          0.03131954891328788,
          -1.5538752701603276,
          -0.8253220462371432,
          0.6993471484715849,
          1.810577843060305,
          0.6558384831369621,
          0.4568649404094514
        ],
        "bias": 2.131463414607641
      },
      {
        "weights": [
          0.23724496952510532,
          -0.5438754585232912,
          -0.48881841569659384,
          -0.27415774264315684,
          -0.9094603475202916,
          -1.2745438974294512,
          -0.3660105810395471,
          0.7099156771393932,
          -1.0443204152810595,
          -1.8543562676106364,
          -2.2629792185801425,
          -0.6979181950743139,
          -1.5795062528782027,
          -1.769955948875872,
          -0.24893027973229323,
          0.17232479565145678,
          0.34748721520747305,
          -1.2163613701997371,
          -1.4277879688255806,
          0.6860125268568849,
          -1.0181760522606496,
          -0.7483182601795761,
          0.2895867029504691,
          -0.4499551521093964,
          -0.5128763953571255,
          -0.4359620172444946,
          -0.0019474387647277864,
          1.0902139345185946,
          -0.455854103860877,
          -0.73330549742831,
          1.770634966158794,
          -0.5049740542466341,
          0.3477724119286371,
          0.18962842726290355,
          0.6403769014731591,
          0.4612447030449042,
          1.9230850320845367,
          1.8874106029432822,
          1.7762689733622319,
          -0.40883451979326635,
          0.42856250554315345,
          -0.15862672079737256,
          2.535379277700894,
          2.192209192381008,
          2.350309553814467,
          -0.7368541408402497,
          -0.17811776806290966,
          0.8152576442756957,
          -0.005489087403264889,
          -0.04478719948063516,
          -0.5578096744501345,
          1.5624219469388418,
          0.559777496926312,
          -1.546888510947181,
          -0.6868606787916872,
          0.2305595192134858,
          0.5365077051084755,
          -0.4119600635028786,
          -0.3477692604979925,
          -1.6723772243169825,
          -0.8889408060580374,
          1.2264012484233016,
          0.16621517426851126,
          0.7428944292627483
        ],
        "bias": -1.3728316421336604
      },
      {
        "weights": [
          -0.41950568425128876,
          0.7594097532223444,
          -0.39864623160677326,
          -0.31149307217654754,
          0.5722180491983685,
          2.165732241735282,
          -0.7425410913146792,
          -0.7017217825712446,
          -0.3116945454155822,
          0.08807216243749559,
          -0.13160538349192408,
          -1.1530335618152234,
          1.7467300129798689,
          2.0647357793462886,
          -0.19055334205767047,
          -0.32504048408887487,
          -0.659609170171786,
          1.0797456071049494,
          -1.9451839551246561,
          -0.643217981010083,
          -0.4516894675511592,
          -1.8209848761330996,
          -0.11408568905454398,
          0.8763086718821947,
          0.21664982295995117,
          0.740217740329846,
          -1.8138095402358811,
          1.0568246549536395,
          0.5722842565786234,
          -1.6025109358133192,
          -1.0466641955992835,
          -0.8098995021379091,
          0.13618461101485888,
          -0.1931408217087066,
          -0.16527278930688,
          0.6468604078328847,
          0.6440811036777425,
          0.14330792974693407,
          0.11807357689022967,
          -0.13276046280787313,
          0.6873918870809148,
          0.8745017306577605,
          0.15841176095664752,
          -0.9971991764660574,
          1.9186072229629851,
          2.1000101512707716,
          2.0173185228633086,
          -0.7938003201695227,
          0.6962131934074464,
          -0.3063981807528779,
          -0.17778201955494516,
          -1.7406485927665203,
          -0.8000273785121043,
          1.0381374222805035,
          1.2458299145222531,
          -1.040480658583272,
          -0.23010070484123366,
          -0.7856491210581801,
          0.9608816725820052,
          0.513118787221908,
          -0.9759931192361679,
          -0.08742230290793547,
          -0.8857399979197703,
          -0.716149368846065
        ],
        "bias": 2.2322047458014818
      },
      {
        "weights": [
          0.48174316555575314,
          -0.2989693940500805,
          -1.3877084302111216,
          0.2048665505430883,
          0.042542539328141935,
          0.27341455689813465,
          -0.1422466126286877,
          -0.08043283579050908,
          -0.6224269857084437,
          0.11943419959051597,
          -0.5291812283005163,
          -1.1341676494967226,
          -1.1568350629401043,
          -0.12492064690379862,
          0.11864730150970536,
          -0.6238666417135421,
          -0.43304604973201516,
          0.42362329502629453,
          1.5104821581989845,
          2.2716545624675044,
          0.7236206295115679,
          -0.21403555517673958,
          -0.49007292528208807,
          0.9396532891870969,
          0.85928157536575,
          0.02034524104549035,
          1.3211770277762211,
          0.5467452046288802,
          -1.510958485379144,
          0.05376752095697749,
          -1.7818089456324273,
          0.30130455393259464,
          -0.31587839065773177,
          0.24176643014186644,
          -0.1522807388687087,
          0.10885347236205674,
          -1.4270242249605034,
          -0.8387738601977086,
          -0.5918840617638055,
          0.42297986071191884,
          0.9674007070370919,
          -1.000920284821983,
          0.28821103439345774,
          -1.3485934677635802,
          -0.3204600973592688,
          1.6838688269404198,
          0.08812386017647687,
          0.14135648903471898,
          -0.7496839242016583,
          0.9094311683403187,
          1.1307714944067435,
          0.8884523903010199,
          1.7206997489918874,
          1.9732638430923495,
          1.031705428095713,
          -0.44456375724579245,
          -0.49162843056996225,
          0.7011509857698656,
          -0.3500344497621128,
          1.1774253102850407,
          0.39617460186664005,
          -0.6261851674458402,
          -1.1887655035457119,
          0.24966800448628715
        ],
        "bias": -0.500935022466822
      }
    ],
    [
      {
        "weights": [
          -1.132097449759607,
          -3.4843553359257537,
          -0.17397491151085814,
          0.4771133083150428,
          -1.2735524428998375,
          0.20132683900991383,
          0.9086870328566868,
          -0.48092035874917105,
          2.9982415626539685,
          0.7004833148357253,
          -0.4013093117045884,
          0.807189552324834,
          -2.090152950602906,
          -0.9505039392713217,
          0.7399441642297759,
          -0.1772836521176147,
          -3.3508681792612607,
          0.3095447477986734,
          -0.5379567576239545,
          1.96619630060605,
          0.48523384641859263,
          -2.540713594591159,
          -1.6784289369012075,
          -1.2714422756643895,
          -3.181897479572504,
          1.240947645039922,
          1.1349075896720917,
          -1.6556004403546136,
          1.4890681311933878,
          -1.1679246932727105,
          -1.0560482323599698,
          0.12173233413324264
        ],
        "bias": -1.343584217421355
      },
      {
        "weights": [
          -1.407132346682164,
          0.47531270463545755,
          2.575136341957633,
          -1.781033082384877,
          -0.9207077028790142,
          -5.199873674616348,
          1.488323659074431,
          3.7530990380565794,
          -3.5217229921734594,
          -1.4756882159258242,
          -1.1605797589208815,
          -5.165548605030364,
          -2.878233480433057,
          0.114831425961354,
          -4.521145301178864,
          3.1521825662873293,
          -0.4277528364051883,
          -1.4512308208630058,
          -0.7957638377275362,
          -1.6721069238732431,
          -2.904131871098069,
          -3.3801014803989533,
          0.34487547730620083,
          -0.8752682138778244,
          0.7252147042417676,
          -0.9504973345501629,
          -0.6895042948208089,
          0.4125428391217948,
          2.3773032434860903,
          1.4816864900648856,
          -0.11790406064864437,
          0.5042367683720584
        ],
        "bias": -1.561512433266401
      },
      {
        "weights": [
          -1.0443725365106655,
          -0.8182822866691699,
          -1.8479882416134858,
          0.1342331468039066,
          -1.552211097131608,
          2.1853967143785056,
          -1.271519025369482,
          1.6981757510808733,
          -2.4324305986626173,
          -1.2011640316359296,
          -1.1626749392580127,
          3.4100826477872306,
          -1.6643416410909195,
          -0.35042682790514207,
          1.2406058081639864,
          1.3158774673902922,
          -1.2111587185844768,
          -0.2376145638285293,
          4.845888382739217,
          -2.0708753623585863,
          -1.0731582896713394,
          -0.5720330904528466,
          -2.530525092708621,
          -1.1202535315294782,
          1.1807354913368833,
          -2.2068840055395778,
          0.4300227312015005,
          0.4904626178933141,
          2.587603934406113,
          -3.0843945717810577,
          -2.788346426370771,
          -2.2097543078788138
        ],
        "bias": -0.4607444057054741
      },
      {
        "weights": [
          -0.6001706671424043,
          1.7980581725973104,
          -2.0175996841455164,
          0.9449779825468491,
          2.3720113988296854,
          1.9210428772236514,
          -1.7970939786105122,
          -2.4034975729765313,
          -0.022045115951690505,
          0.2683624018982817,
          -1.1740862559713396,
          -0.9964249430627812,
          -0.5885111369732812,
          0.42239090636347343,
          0.8707285768226287,
          -1.478543162644432,
          -4.269369712614572,
          -5.508019962681849,
          -0.7168172754264289,
          -2.011758770443267,
          -1.147134038271835,
          -1.9916375235456143,
          1.9230699988424091,
          0.7498609977557278,
          1.2355301014921731,
          -2.2440218903979505,
          -0.029862947412598956,
          -2.0415316732771087,
          -2.4931152816533353,
          -1.3075737225315154,
          1.6818188054389511,
          -0.032024381136028214
        ],
        "bias": -1.563438383949366
      },
      {
        "weights": [
          -0.7163447192678969,
          -2.164497477984806,
          -1.8268865729995976,
          -0.478613303126141,
          0.09313461132646518,
          -4.279196559661724,
          -2.0724933210311716,
          -0.21620869104471538,
          1.7576996901647017,
          0.5198995738158585,
          -0.6686482119082502,
          -0.2536586954881354,
          -1.059957824206156,
          0.19730212627341498,
          0.0146657429309326,
          3.5097723643745655,
          0.16875145891014617,
          -1.5238190370518965,
          -0.48407742446064994,
          2.507230077353615,
          1.7658521505766205,
          4.804023867545277,
          1.360964742224434,
          -4.450833391989464,
          0.03547450190810109,
          0.7980873988045819,
          -0.6960704902099666,
          -3.301424307711943,
          -2.2563632719910767,
          1.6677500867080008,
          0.3944318917232396,
          -1.6211858789210123
        ],
        "bias": -2.172259472649211
      },
      {
        "weights": [
          -2.1041746014345537,
          -0.21475242765148767,
          4.004222393835041,
          -0.7135981629072434,
          -3.4346014392769493,
          -1.1377103525493226,
          0.9240382041337187,
          0.3078629690517174,
          -1.048856873976511,
          -2.04137864698519,
          1.878179470510988,
          -1.1605412312016559,
          -1.6925812806507832,
          0.9016437830105574,
          -1.4449121149732627,
          -2.713837406180254,
          3.8683936949830415,
          -3.010540167982178,
          0.7849906420634007,
          1.199855766151339,
          1.6968790289210556,
          -1.0687118062848653,
          0.9357006149892682,
          1.5962704447862388,
          -1.6452605357038772,
          -0.2378233213681547,
          1.3069901380726705,
          -0.23157063603860004,
          -3.21999331500397,
          -2.9217904452372316,
          0.5027491600900311,
          -0.6631214826420732
        ],
        "bias": -1.7228605238461592
      },
      {
        "weights": [
          -1.3692327462674891,
          3.0846046310016217,
          0.8315734919634671,
          -0.13609183904250596,
          -1.9114809618369408,
          1.5341400159873568,
          -4.583373443084181,
          -2.2737408231293545,
          -0.8138291038132228,
          -0.5894910730884371,
          3.487583943044969,
          -3.451410535410046,
          -0.9528207791353376,
          -0.05443206614049247,
          1.010547661906113,
          -2.1909522765227423,
          0.4110754263056477,
          0.030067486042541,
          -0.6356560911398159,
          -0.8449524973815528,
          -0.1385695595035349,
          -0.549574566479908,
          -2.2204203673488196,
          -2.4185143601783308,
          -0.35920925675121446,
          -0.7624987323366027,
          0.1273511543750765,
          -2.746521086380746,
          1.0811580096921756,
          2.2978617140631026,
          -0.951954795954406,
          -0.2930760033674291
        ],
        "bias": -1.7164225311014338
      },
      {
        "weights": [
          -0.32029245200106965,
          0.107005363378881,
          -1.751896618980127,
          0.4896277891449715,
          -0.20655879116307282,
          1.2858028473518734,
          0.055351947735026316,
          -1.6051871667786006,
          -0.6578426998213793,
          0.3517342218651993,
          -0.3485841447511922,
          0.3307194078092997,
          0.12133251663550572,
          -0.41941871950900095,
          -1.323683955598362,
          0.41184831185970433,
          2.6678623311851672,
          1.2355121856431956,
          -1.663563946022196,
          0.21241783637473255,
          -2.830268357324985,
          0.06199459170514769,
          0.19139551801171936,
          2.8474526910596634,
          -4.844225636059802,
          -2.0638177551180705,
          -0.0626608269019107,
          -1.3334977306273619,
          0.7324342629895647,
          2.2828761237117607,
          0.05073079187264362,
          -4.57406302332897
        ],
        "bias": 0.14605102223055222
      },
      {
        "weights": [
          -0.007654541312183186,
          2.668968114592319,
          -2.628420721502795,
          1.668555406331583,
          -0.8836019562262275,
          -2.631155341692849,
          0.6537769311190249,
          -2.1128835017572265,
          -3.1794670898993873,
          -0.7066984412097872,
          -0.4742449308828741,
          1.403938549480604,
          -1.0756949312373474,
          -0.8193862269588728,
          -3.477355224266587,
          -4.872136033033808,
          -0.7486396764993002,
          2.500901918990966,
          -2.653344861163301,
          -1.1818931200898037,
          3.2018257030334794,
          -0.4461385344412369,
          -3.457740851830164,
          -2.6822333545964785,
          0.8389543977359127,
          0.9352321671244676,
          -2.56389184258022,
          -2.7201975963208453,
          4.518157414276723,
          -3.315829596243052,
          3.0116525886398002,
          1.291475926564721
        ],
        "bias": 0.3879163381294243
      },
      {
        "weights": [
          -1.4931408168153688,
          -3.7301556563866964,
          -3.189166854930788,
          1.5016934054135225,
          2.95703579956035,
          -2.509996247533714,
          -1.2954903967980338,
          0.15571196026391185,
          0.9874455320242626,
          -1.9340375074400082,
          -0.705168917077479,
          -2.3701311804063727,
          -0.1185003609293839,
          0.5484851702833298,
          -0.6860088125445177,
          -1.9690802266377192,
          -1.9992280966770473,
          3.655261871511444,
          -0.782584596590453,
          0.7020486313636274,
          -2.680120667533091,
          2.4746258645401755,
          -2.278455735698311,
          3.0292699734021404,
          1.0768764770774255,
          -0.9323326023109811,
          -1.2921433184439526,
          -0.6070234165582044,
          -4.1130488155583,
          -4.2642189607592105,
          -4.845302024175747,
          3.2367815861309412
        ],
        "bias": -1.9703299409518318
      }
    ]
  ]
}